<?xml version="1.0"?>
<opencv_storage>
<stage8>
  <maxWeakCount>24</maxWeakCount>
  <stageThreshold>-1.3941298723220825e+00</stageThreshold>
  <weakClassifiers>
    <_>
      <internalNodes>
        0 -1 654 1.1999227106571198e-02</internalNodes>
      <leafValues>
        -5.6497174501419067e-01 3.5149383544921875e-01</leafValues></_>
    <_>
      <internalNodes>
        0 -1 114123 4.4418764300644398e-03</internalNodes>
      <leafValues>
        -5.0895959138870239e-01 3.2193338871002197e-01</leafValues></_>
    <_>
      <internalNodes>
        0 -1 725766 -1.1643210891634226e-03</internalNodes>
      <leafValues>
        3.0757182836532593e-01 -5.2611678838729858e-01</leafValues></_>
    <_>
      <internalNodes>
        0 -1 822383 -6.8163801915943623e-04</internalNodes>
      <leafValues>
        4.2514330148696899e-01 -3.0742838978767395e-01</leafValues></_>
    <_>
      <internalNodes>
        0 -1 226892 1.2255947513040155e-04</internalNodes>
      <leafValues>
        1.3681277632713318e-01 -7.5683498382568359e-01</leafValues></_>
    <_>
      <internalNodes>
        0 -1 746105 4.6689115464687347e-02</internalNodes>
      <leafValues>
        -1.8338498473167419e-01 6.8470990657806396e-01</leafValues></_>
    <_>
      <internalNodes>
        0 -1 232037 4.1889573913067579e-04</internalNodes>
      <leafValues>
        9.8333723843097687e-02 -7.3543792963027954e-01</leafValues></_>
    <_>
      <internalNodes>
        0 -1 40902 5.5778045207262039e-03</internalNodes>
      <leafValues>
        1.6711971163749695e-01 -6.0040116310119629e-01</leafValues></_>
    <_>
      <internalNodes>
        0 -1 237400 1.7905568529386073e-04</internalNodes>
      <leafValues>
        -3.5786709189414978e-01 2.5167164206504822e-01</leafValues></_>
    <_>
      <internalNodes>
        0 -1 545000 -3.6111910594627261e-04</internalNodes>
      <leafValues>
        -8.9484375715255737e-01 1.0806426405906677e-01</leafValues></_>
    <_>
      <internalNodes>
        0 -1 234418 -7.4077700264751911e-04</internalNodes>
      <leafValues>
        3.8786479830741882e-01 -2.4743995070457458e-01</leafValues></_>
    <_>
      <internalNodes>
        0 -1 516262 2.3879183572717011e-04</internalNodes>
      <leafValues>
        -4.0604436397552490e-01 2.1742488443851471e-01</leafValues></_>
    <_>
      <internalNodes>
        0 -1 703332 8.3526596426963806e-03</internalNodes>
      <leafValues>
        1.6829155385494232e-01 -5.1002401113510132e-01</leafValues></_>
    <_>
      <internalNodes>
        0 -1 743525 -5.6619825772941113e-04</internalNodes>
      <leafValues>
        3.2672548294067383e-01 -2.7929890155792236e-01</leafValues></_>
    <_>
      <internalNodes>
        0 -1 751485 2.6638114824891090e-02</internalNodes>
      <leafValues>
        -2.0418530702590942e-01 4.5652905106544495e-01</leafValues></_>
    <_>
      <internalNodes>
        0 -1 760137 1.6692388453520834e-04</internalNodes>
      <leafValues>
        1.0474715381860733e-01 -8.5406953096389771e-01</leafValues></_>
    <_>
      <internalNodes>
        0 -1 774227 2.3986101950868033e-05</internalNodes>
      <leafValues>
        -4.5298659801483154e-01 1.8729661405086517e-01</leafValues></_>
    <_>
      <internalNodes>
        0 -1 292018 -1.0074640158563852e-04</internalNodes>
      <leafValues>
        -5.4991495609283447e-01 1.5262839198112488e-01</leafValues></_>
    <_>
      <internalNodes>
        0 -1 338162 1.0875010630115867e-03</internalNodes>
      <leafValues>
        -1.9412253797054291e-01 4.2046439647674561e-01</leafValues></_>
    <_>
      <internalNodes>
        0 -1 134280 3.6455388180911541e-04</internalNodes>
      <leafValues>
        -5.9544247388839722e-01 1.6496722400188446e-01</leafValues></_>
    <_>
      <internalNodes>
        0 -1 789569 8.3410035585984588e-05</internalNodes>
      <leafValues>
        8.5873633623123169e-02 -7.9671329259872437e-01</leafValues></_>
    <_>
      <internalNodes>
        0 -1 548928 -7.3326285928487778e-04</internalNodes>
      <leafValues>
        2.2902742028236389e-01 -3.2414150238037109e-01</leafValues></_>
    <_>
      <internalNodes>
        0 -1 6611 5.4655473679304123e-02</internalNodes>
      <leafValues>
        1.7646384239196777e-01 -5.4859256744384766e-01</leafValues></_>
    <_>
      <internalNodes>
        0 -1 311283 5.1374351605772972e-03</internalNodes>
      <leafValues>
        -1.4066158235073090e-01 6.6376072168350220e-01</leafValues></_></weakClassifiers></stage8>
</opencv_storage>
